digraph Tree {
node [shape=box] ;
rankdir=LR ;
0 [label="new_user <= 0.5\ngini = 0.374\nsamples = 100.0%\nvalue = [0.751, 0.249]"] ;
1 [label="age <= 29.5\ngini = 0.492\nsamples = 31.4%\nvalue = [0.565, 0.435]"] ;
0 -> 1 [labeldistance=2.5, labelangle=-45, headlabel="True"] ;
2 [label="gini = 0.498\nsamples = 15.5%\nvalue = [0.469, 0.531]"] ;
1 -> 2 ;
3 [label="gini = 0.424\nsamples = 15.9%\nvalue = [0.695, 0.305]"] ;
1 -> 3 ;
4 [label="age <= 27.5\ngini = 0.219\nsamples = 68.6%\nvalue = [0.875, 0.125]"] ;
0 -> 4 [labeldistance=2.5, labelangle=45, headlabel="False"] ;
5 [label="gini = 0.298\nsamples = 26.9%\nvalue = [0.818, 0.182]"] ;
4 -> 5 ;
6 [label="gini = 0.154\nsamples = 41.7%\nvalue = [0.916, 0.084]"] ;
4 -> 6 ;
}
